{"learner":{"attributes":{"best_iteration":"17","best_score":"0.9170352572315335"},"feature_names":["bm25_score","tfidf_cosine","query_term_coverage","title_match_score","body_match_score","doc_length","doc_pagerank","doc_freshness_days","avg_click_rate","query_length","query_idf_sum","is_navigational"],"feature_types":[],"gradient_booster":{"model":{"cats":{"enc":[],"feature_segments":[],"sorted_idx":[]},"gbtree_model_param":{"num_parallel_tree":"1","num_trees":"48"},"iteration_indptr":[0,1,2,3,4,5,6,7,8,9,10,11,12,13,14,15,16,17,18,19,20,21,22,23,24,25,26,27,28,29,30,31,32,33,34,35,36,37,38,39,40,41,42,43,44,45,46,47,48],"tree_info":[0,0,0,0,0,0,0,0,0,0,0,0,0,0,0,0,0,0,0,0,0,0,0,0,0,0,0,0,0,0,0,0,0,0,0,0,0,0,0,0,0,0,0,0,0,0,0,0],"trees":[{"base_weights":[-4.555844E-2,-5.898221E-1,5.4349905E-1,-3.5997655E-2,-1.6109748E-2,1.1966873E-2,3.5212114E-2],"categories":[],"categories_nodes":[],"categories_segments":[],"categories_sizes":[],"default_left":[0,0,0,0,0,0,0],"id":0,"left_children":[1,3,5,-1,-1,-1,-1],"loss_changes":[1.1718441E1,3.2686853E-1,5.9262085E-1,0E0,0E0,0E0,0E0],"parents":[2147483647,0,0,1,1,2,2],"right_children":[2,4,6,-1,-1,-1,-1],"split_conditions":[1.698697E-1,4.3040615E-2,2.668666E-1,-3.5997655E-2,-1.6109748E-2,1.1966873E-2,3.5212114E-2],"split_indices":[8,8,8,0,0,0,0],"split_type":[0,0,0,0,0,0,0],"sum_hessian":[3.4536957E1,1.8038567E1,1.649839E1,1.0748452E1,7.2901144E0,6.7800655E0,9.718325E0],"tree_param":{"num_deleted":"0","num_feature":"12","num_nodes":"7","size_leaf_vector":"1"}},{"base_weights":[2.272613E-2,-4.0823087E-1,2.458652E-1,-5.661907E-1,-0E0,4.3233958E-1,-2.0295518E-2,-1.5047969E-2,-3.457589E-2,3.333838E-2,1.10537596E-1,-2.2424552E-1,1.5075982E-2,-3.6430873E-3,1.4855287E-2,-4.519037E-3,-1.52338045E-2],"categories":[],"categories_nodes":[],"categories_segments":[],"categories_sizes":[],"default_left":[0,0,0,0,0,0,0,0,0,0,0,0,0,0,0,0,0],"id":1,"left_children":[1,3,5,7,-1,9,11,-1,-1,-1,13,15,-1,-1,-1,-1,-1],"loss_changes":[5.733901E0,1.2639623E0,2.0097601E0,1.7389679E-1,0E0,1.6202307E0,1.1757691E0,0E0,0E0,0E0,4.299071E-1,5.3224385E-2,0E0,0E0,0E0,0E0,0E0],"parents":[2147483647,0,0,1,1,2,2,3,3,5,5,6,6,10,10,11,11],"right_children":[2,4,6,8,-1,10,12,-1,-1,-1,14,16,-1,-1,-1,-1,-1],"split_conditions":[3.2725027E-1,6.085235E-1,6.969631E-1,4.969131E-1,-0E0,5.419363E-1,7.6945996E-1,-1.5047969E-2,-3.457589E-2,3.333838E-2,5.34E2,4.6E2,1.5075982E-2,-3.6430873E-3,1.4855287E-2,-4.519037E-3,-1.52338045E-2],"split_indices":[6,4,3,4,0,4,3,0,0,0,5,5,0,0,0,0,0],"split_type":[0,0,0,0,0,0,0,0,0,0,0,0,0,0,0,0,0],"sum_hessian":[5.775178E1,1.9265652E1,3.848613E1,1.3478132E1,5.787519E0,2.2484596E1,1.6001535E1,5.672549E0,7.805583E0,1.2208299E1,1.0276298E1,1.0170141E1,5.8313932E0,5.219205E0,5.0570927E0,5.080846E0,5.089296E0],"tree_param":{"num_deleted":"0","num_feature":"12","num_nodes":"17","size_leaf_vector":"1"}},{"base_weights":[-2.6702091E-2,-2.1782257E-1,3.9307836E-2,-5.572063E-1,1.4993106E-2,-3.5012014E-2,-1.612539E-2,1.9209875E-1,-1.8984054E-1,3.915043E-3,1.5647871E-2,-2.8513623E-3,-1.3275671E-2],"categories":[],"categories_nodes":[],"categories_segments":[],"categories_sizes":[],"default_left":[0,0,0,0,0,0,0,0,0,0,0,0,0],"id":2,"left_children":[1,3,-1,5,7,-1,-1,9,11,-1,-1,-1,-1],"loss_changes":[8.324335E0,3.5130463E0,0E0,2.7510977E-1,1.005301E0,0E0,0E0,1.437459E-1,7.946041E-2,0E0,0E0,0E0,0E0],"parents":[2147483647,0,0,1,1,3,3,4,4,7,7,8,8],"right_children":[2,4,-1,6,8,-1,-1,10,12,-1,-1,-1,-1],"split_conditions":[3.1185016E-1,8.768622E-2,3.9307836E-2,6.823513E-1,5.34E2,-3.5012014E-2,-1.612539E-2,4.04E2,5.8767337E-1,3.915043E-3,1.5647871E-2,-2.8513623E-3,-1.3275671E-2],"split_indices":[8,8,0,3,5,0,0,5,3,0,0,0,0],"split_type":[0,0,0,0,0,0,0,0,0,0,0,0,0],"sum_hessian":[5.184658E1,4.2669193E1,9.177387E0,1.6969027E1,2.5700167E1,9.046252E0,7.922774E0,1.4078137E1,1.1622029E1,8.525755E0,5.5523825E0,5.334515E0,6.2875147E0],"tree_param":{"num_deleted":"0","num_feature":"12","num_nodes":"13","size_leaf_vector":"1"}},{"base_weights":[-8.940329E-3,-1.9725718E-1,5.472973E-1,-5.310847E-1,-1.7708875E-2,1.5185093E-2,3.9995804E-2,-1.08970925E-2,-4.1359495E-2,1.1571675E-1,-1.45749105E-2,-4.7369022E-2,1.480964E-2,-1.1266565E-2,5.643849E-3],"categories":[],"categories_nodes":[],"categories_segments":[],"categories_sizes":[],"default_left":[0,0,0,0,0,0,0,0,0,0,0,0,0,0,0],"id":3,"left_children":[1,3,5,7,9,-1,-1,-1,-1,11,-1,13,-1,-1,-1],"loss_changes":[6.1182656E0,2.5720859E0,5.529895E-1,1.1203341E0,1.1410453E0,0E0,0E0,0E0,0E0,6.430828E-1,0E0,3.6047116E-1,0E0,0E0,0E0],"parents":[2147483647,0,0,1,1,2,2,3,3,4,4,9,9,11,11],"right_children":[2,4,6,8,10,-1,-1,-1,-1,12,-1,14,-1,-1,-1],"split_conditions":[2.668666E-1,3.785415E-2,3.5411596E-1,6.969631E-1,2.08E2,1.5185093E-2,3.9995804E-2,-1.08970925E-2,-4.1359495E-2,1.09E2,-1.45749105E-2,2.047912E1,1.480964E-2,-1.1266565E-2,5.643849E-3],"split_indices":[8,8,8,3,7,0,0,0,0,7,0,10,0,0,0],"split_type":[0,0,0,0,0,0,0,0,0,0,0,0,0,0,0],"sum_hessian":[5.6712402E1,4.2984837E1,1.3727566E1,1.4153994E1,2.8830841E1,8.311253E0,5.416313E0,7.886965E0,6.267029E0,1.9526909E1,9.303932E0,1.0354021E1,9.172888E0,5.009059E0,5.344962E0],"tree_param":{"num_deleted":"0","num_feature":"12","num_nodes":"15","size_leaf_vector":"1"}},{"base_weights":[4.096591E-2,-2.7001604E-2,1.4539759E-1,3.748695E-1,6.997558E-2,1.0698671E-2,2.3475973E-2,-1.2847792E-1,1.5723972E-1,5.0086426E-3,-1.8184515E-2,-2.217317E-3,2.2574194E-1,2.4095794E-2,4.6518434E-2,-1.0544191E-2,1.5616541E-2],"categories":[],"categories_nodes":[],"categories_segments":[],"categories_sizes":[],"default_left":[0,0,0,0,0,0,0,0,0,0,0,0,0,0,0,0,0],"id":4,"left_children":[1,-1,3,5,7,-1,-1,9,11,-1,-1,-1,13,-1,15,-1,-1],"loss_changes":[3.470383E0,0E0,7.7509403E-1,6.7989826E-3,6.870229E-1,0E0,0E0,7.033092E-1,4.0691888E-1,0E0,0E0,0E0,8.8920176E-1,0E0,1.013109E0,0E0,0E0],"parents":[2147483647,0,0,2,2,3,3,4,4,7,7,8,8,12,12,14,14],"right_children":[2,-1,4,6,8,-1,-1,10,12,-1,-1,-1,14,-1,16,-1,-1],"split_conditions":[2.1027832E-1,-2.7001604E-2,5.8424485E-1,5.923205E-1,6.7633766E-1,1.0698671E-2,2.3475973E-2,6.329819E-1,3.83E2,5.0086426E-3,-1.8184515E-2,-2.217317E-3,7.2318155E-1,2.4095794E-2,7.754597E-1,-1.0544191E-2,1.5616541E-2],"split_indices":[6,0,3,6,3,0,0,3,5,0,0,0,3,0,3,0,0],"split_type":[0,0,0,0,0,0,0,0,0,0,0,0,0,0,0,0,0],"sum_hessian":[5.555294E1,7.682607E0,4.7870335E1,1.0531629E1,3.7338707E1,5.4997587E0,5.03187E0,1.0909779E1,2.6428926E1,5.60759E0,5.3021884E0,6.42233E0,2.0006598E1,7.31047E0,1.2696128E1,6.363959E0,6.3321686E0],"tree_param":{"num_deleted":"0","num_feature":"12","num_nodes":"17","size_leaf_vector":"1"}},{"base_weights":[-2.395007E-2,-1.9720757E-1,3.1474303E-2,-6.4636904E-1,-1.9650372E-2,-4.046198E-2,-1.7439846E-2,5.4343972E-2,-1.2667837E-2,-8.349232E-2,1.7413696E-2,-1.75788E-2,1.2166197E-2],"categories":[],"categories_nodes":[],"categories_segments":[],"categories_sizes":[],"default_left":[0,0,0,0,0,0,0,0,0,0,0,0,0],"id":5,"left_children":[1,3,-1,5,7,-1,-1,9,-1,11,-1,-1,-1],"loss_changes":[6.413652E0,3.5171804E0,0E0,2.118926E-1,6.1316687E-1,0E0,0E0,1.1069219E0,0E0,1.6945543E0,0E0,0E0,0E0],"parents":[2147483647,0,0,1,1,3,3,4,4,7,7,9,9],"right_children":[2,4,-1,6,8,-1,-1,10,-1,12,-1,-1,-1],"split_conditions":[3.015005E-1,2.404381E-2,3.1474303E-2,5.09E2,2.1211433E-1,-4.046198E-2,-1.7439846E-2,1.8043487E-1,-1.2667837E-2,5.763575E-1,1.7413696E-2,-1.75788E-2,1.2166197E-2],"split_indices":[8,8,0,5,8,0,0,8,0,4,0,0,0],"split_type":[0,0,0,0,0,0,0,0,0,0,0,0,0],"sum_hessian":[5.4936657E1,4.409593E1,1.0840727E1,1.1585321E1,3.2510605E1,6.1588597E0,5.426462E0,2.4950537E1,7.5600696E0,1.7241154E1,7.709384E0,9.598135E0,7.6430182E0],"tree_param":{"num_deleted":"0","num_feature":"12","num_nodes":"13","size_leaf_vector":"1"}},{"base_weights":[-4.6681616E-2,-3.024401E-1,3.3792868E-1,-2.8256893E-2,-1.3197577E-1,-9.338632E-4,4.731593E-1,-1.3890472E-2,-2.0337438E-2,3.133358E-2,7.983932E-3,-5.1391134E-3,6.1704367E-3],"categories":[],"categories_nodes":[],"categories_segments":[],"categories_sizes":[],"default_left":[0,0,0,0,0,0,0,0,0,0,0,0,0],"id":6,"left_children":[1,3,5,-1,7,-1,9,11,-1,-1,-1,-1,-1],"loss_changes":[5.2354836E0,1.290838E0,1.0753217E0,0E0,6.327448E-1,0E0,5.716636E-1,2.0538375E-1,0E0,0E0,0E0,0E0,0E0],"parents":[2147483647,0,0,1,1,2,2,4,4,6,6,7,7],"right_children":[2,4,6,-1,8,-1,10,12,-1,-1,-1,-1,-1],"split_conditions":[2.0857064E-1,2.404381E-2,2.866442E-1,-2.8256893E-2,7.3139083E-1,-9.338632E-4,6.259748E-1,6.796297E-1,-2.0337438E-2,3.133358E-2,7.983932E-3,-5.1391134E-3,6.1704367E-3],"split_indices":[8,8,6,0,3,0,6,3,0,0,0,0,0],"split_type":[0,0,0,0,0,0,0,0,0,0,0,0,0],"sum_hessian":[5.1220875E1,3.104812E1,2.0172756E1,1.1076508E1,1.9971613E1,5.580162E0,1.4592593E1,1.495787E1,5.0137424E0,8.9108515E0,5.6817417E0,9.674215E0,5.2836537E0],"tree_param":{"num_deleted":"0","num_feature":"12","num_nodes":"13","size_leaf_vector":"1"}},{"base_weights":[7.629693E-2,-2.9607862E-1,2.866022E-1,-0E0,-4.1368103E-1,1.715983E-1,3.721636E-2,-2.6499921E-2,-1.0365272E-2,2.752793E-1,-7.240213E-3,1.0082687E-1,2.7437543E-2,1.0796327E-2,-2.9521957E-3],"categories":[],"categories_nodes":[],"categories_segments":[],"categories_sizes":[],"default_left":[0,0,0,0,0,0,0,0,0,0,0,0,0,0,0],"id":7,"left_children":[1,3,5,-1,7,9,-1,-1,-1,11,-1,13,-1,-1,-1],"loss_changes":[3.9937818E0,6.032188E-1,1.4960375E0,0E0,1.2653375E-1,9.556126E-1,0E0,0E0,0E0,8.962946E-1,0E0,2.9447746E-1,0E0,0E0,0E0],"parents":[2147483647,0,0,1,1,2,2,4,4,5,5,9,9,11,11],"right_children":[2,4,6,-1,8,10,-1,-1,-1,12,-1,14,-1,-1,-1],"split_conditions":[1.2888971E-1,6.143379E-1,3.4334895E-1,-0E0,3.336211E-2,6.115279E-1,3.721636E-2,-2.6499921E-2,-1.0365272E-2,5.571558E-1,-7.240213E-3,2.1052076E-1,2.7437543E-2,1.0796327E-2,-2.9521957E-3],"split_indices":[8,3,8,0,8,4,0,0,0,4,0,8,0,0,0],"split_type":[0,0,0,0,0,0,0,0,0,0,0,0,0,0,0],"sum_hessian":[4.892652E1,1.7340078E1,3.1586443E1,5.42048E0,1.1919599E1,2.6517307E1,5.0691357E0,6.3103065E0,5.609292E0,2.03085E1,6.208808E0,1.3457853E1,6.850646E0,7.984355E0,5.4734983E0],"tree_param":{"num_deleted":"0","num_feature":"12","num_nodes":"15","size_leaf_vector":"1"}},{"base_weights":[6.449766E-3,1.8650393E-1,-1.8775779E-1,3.187901E-1,-5.061369E-3,-3.5314488E-1,1.4648712E-2,-2.0121352E-4,5.03936E-1,-7.917985E-4,-2.7891476E-2,1.2867736E-2,3.1784397E-2],"categories":[],"categories_nodes":[],"categories_segments":[],"categories_sizes":[],"default_left":[0,0,0,0,0,0,0,0,0,0,0,0,0],"id":8,"left_children":[1,3,5,7,-1,9,-1,-1,11,-1,-1,-1,-1],"loss_changes":[1.7216276E0,1.036022E0,1.972914E0,1.1369711E0,0E0,1.1797543E0,0E0,0E0,1.2853837E-1,0E0,0E0,0E0,0E0],"parents":[2147483647,0,0,1,1,2,2,3,3,5,5,8,8],"right_children":[2,4,6,8,-1,10,-1,-1,12,-1,-1,-1,-1],"split_conditions":[1.51E2,5.863431E-1,3.55E2,4.9206868E-1,-5.061369E-3,4.23E2,1.4648712E-2,-2.0121352E-4,3.91E2,-7.917985E-4,-2.7891476E-2,1.2867736E-2,3.1784397E-2],"split_indices":[7,4,7,4,0,5,0,0,5,0,0,0,0],"split_type":[0,0,0,0,0,0,0,0,0,0,0,0,0],"sum_hessian":[4.7236706E1,2.4799301E1,2.2437405E1,1.7152802E1,7.6465006E0,1.704634E1,5.3910656E0,6.4117055E0,1.0741096E1,7.028947E0,1.0017393E1,5.033306E0,5.707789E0],"tree_param":{"num_deleted":"0","num_feature":"12","num_nodes":"13","size_leaf_vector":"1"}},{"base_weights":[-1.9910226E-2,-3.080913E-1,3.3471867E-1,-2.581414E-2,-1.3603608E-1,-3.5869435E-3,4.5620462E-1,-1.168024E-2,-0E0,1.3092662E-2,3.0944575E-2],"categories":[],"categories_nodes":[],"categories_segments":[],"categories_sizes":[],"default_left":[0,0,0,0,0,0,0,0,0,0,0],"id":9,"left_children":[1,3,5,-1,7,-1,9,-1,-1,-1,-1],"loss_changes":[5.416082E0,9.16626E-1,1.2385919E0,0E0,2.4084356E-1,0E0,3.356619E-1,0E0,0E0,0E0,0E0],"parents":[2147483647,0,0,1,1,2,2,4,4,6,6],"right_children":[2,4,6,-1,8,-1,10,-1,-1,-1,-1],"split_conditions":[1.8043487E-1,2.186886E-2,2.88786E-1,-2.581414E-2,6.0741955E-1,-3.5869435E-3,2.7689233E-1,-1.168024E-2,-0E0,1.3092662E-2,3.0944575E-2],"split_indices":[8,8,6,0,6,0,8,0,0,0,0],"split_type":[0,0,0,0,0,0,0,0,0,0,0],"sum_hessian":[5.1013298E1,2.8371256E1,2.264204E1,1.1669254E1,1.6702002E1,5.1150117E0,1.7527029E1,9.416366E0,7.2856355E0,9.455451E0,8.071579E0],"tree_param":{"num_deleted":"0","num_feature":"12","num_nodes":"11","size_leaf_vector":"1"}},{"base_weights":[-2.4407217E-2,-1.6701606E-1,4.3442664E-1,-4.647805E-1,-2.5357522E-2,9.003576E-3,2.8318206E-2,-2.9358028E-2,-1.4275814E-2,1.3948552E-1,-2.2811529E-1,-1.186422E-3,1.5932335E-2,-1.4427395E-3,-1.9798165E-2],"categories":[],"categories_nodes":[],"categories_segments":[],"categories_sizes":[],"default_left":[0,0,0,0,0,0,0,0,0,0,0,0,0,0,0],"id":10,"left_children":[1,3,5,7,9,-1,-1,-1,-1,11,13,-1,-1,-1,-1],"loss_changes":[3.555564E0,1.7027217E0,2.5392008E-1,3.4514904E-2,1.0305381E0,0E0,0E0,0E0,0E0,5.249121E-1,4.1205835E-1,0E0,0E0,0E0,0E0],"parents":[2147483647,0,0,1,1,2,2,3,3,4,4,9,9,10,10],"right_children":[2,4,6,8,10,-1,-1,-1,-1,12,14,-1,-1,-1,-1],"split_conditions":[2.6103142E-1,2.404381E-2,3.2318202E-1,3.6597803E-1,5.03E2,9.003576E-3,2.8318206E-2,-2.9358028E-2,-1.4275814E-2,5.7776E-1,1.6140202E-1,-1.186422E-3,1.5932335E-2,-1.4427395E-3,-1.9798165E-2],"split_indices":[8,8,8,6,5,0,0,0,0,6,8,0,0,0,0],"split_type":[0,0,0,0,0,0,0,0,0,0,0,0,0,0,0],"sum_hessian":[5.263819E1,4.0808548E1,1.1829645E1,1.219271E1,2.8615837E1,5.106964E0,6.7226806E0,5.5622473E0,6.6304626E0,1.568374E1,1.2932097E1,8.369036E0,7.3147035E0,6.7209816E0,6.211116E0],"tree_param":{"num_deleted":"0","num_feature":"12","num_nodes":"15","size_leaf_vector":"1"}},{"base_weights":[-7.911882E-3,-3.0974454E-1,3.637277E-1,-4.4895244E-1,-1.1194225E-1,-0E0,2.4127962E-2,-3.7095945E-2,-1.0098094E-2,6.4992765E-3,-1.8912276E-2],"categories":[],"categories_nodes":[],"categories_segments":[],"categories_sizes":[],"default_left":[0,0,0,0,0,0,0,0,0,0,0],"id":11,"left_children":[1,3,5,7,9,-1,-1,-1,-1,-1,-1],"loss_changes":[5.564255E0,6.5181494E-1,9.9551344E-1,8.796377E-1,9.1167444E-1,0E0,0E0,0E0,0E0,0E0,0E0],"parents":[2147483647,0,0,1,1,2,2,3,3,4,4],"right_children":[2,4,6,8,10,-1,-1,-1,-1,-1,-1],"split_conditions":[1.8043487E-1,5.76E2,5.6677014E-1,3.785415E-2,7.37E2,-0E0,2.4127962E-2,-3.7095945E-2,-1.0098094E-2,6.4992765E-3,-1.8912276E-2],"split_indices":[8,5,3,8,5,0,0,0,0,0,0],"split_type":[0,0,0,0,0,0,0,0,0,0,0],"sum_hessian":[4.7648006E1,2.6533804E1,2.1114202E1,1.4531598E1,1.2002205E1,5.2752547E0,1.5838947E1,5.545329E0,8.986269E0,6.360383E0,5.641822E0],"tree_param":{"num_deleted":"0","num_feature":"12","num_nodes":"11","size_leaf_vector":"1"}},{"base_weights":[5.19458E-2,-2.5100625E-1,2.2521037E-1,-2.6628518E-2,-2.5905639E-2,3.248048E-1,-4.6821977E-3,5.871862E-3,-8.956293E-3,2.073388E-1,2.8170068E-2,-0E0,1.7921133E-2],"categories":[],"categories_nodes":[],"categories_segments":[],"categories_sizes":[],"default_left":[0,0,0,0,0,0,0,0,0,0,0,0,0],"id":12,"left_children":[1,3,5,-1,7,9,-1,-1,-1,11,-1,-1,-1],"loss_changes":[2.6298213E0,1.0786377E0,1.0683122E0,0E0,2.7575356E-1,5.015309E-1,0E0,0E0,0E0,5.8785075E-1,0E0,0E0,0E0],"parents":[2147483647,0,0,1,1,2,2,4,4,5,5,9,9],"right_children":[2,4,6,-1,8,10,-1,-1,-1,12,-1,-1,-1],"split_conditions":[8.435831E-2,2.7124354E-1,6.52E2,-2.6628518E-2,1.67E2,3.015005E-1,-4.6821977E-3,5.871862E-3,-8.956293E-3,4.04E2,2.8170068E-2,-0E0,1.7921133E-2],"split_indices":[8,6,5,0,7,8,0,0,0,5,0,0,0],"split_type":[0,0,0,0,0,0,0,0,0,0,0,0,0],"sum_hessian":[4.8072765E1,1.7117348E1,3.095542E1,6.8006625E0,1.0316686E1,2.381252E1,7.1429005E0,5.113609E0,5.203077E0,1.748996E1,6.3225584E0,7.7266912E0,9.763268E0],"tree_param":{"num_deleted":"0","num_feature":"12","num_nodes":"13","size_leaf_vector":"1"}},{"base_weights":[-0E0,-3.949827E-1,1.9581279E-1,-3.5286486E-2,-6.6013313E-3,4.5149058E-2,2.8503178E-2,1.4642745E-1,-1.4090173E-2,-4.424621E-3,2.4786198E-1,2.2770837E-3,1.9742211E-2],"categories":[],"categories_nodes":[],"categories_segments":[],"categories_sizes":[],"default_left":[0,0,0,0,0,0,0,0,0,0,0,0,0],"id":13,"left_children":[1,3,5,-1,-1,7,-1,9,-1,-1,11,-1,-1],"loss_changes":[3.9546006E0,1.2029176E0,1.8540087E0,0E0,0E0,8.828068E-1,0E0,5.289217E-1,0E0,0E0,3.826484E-1,0E0,0E0],"parents":[2147483647,0,0,1,1,2,2,5,5,7,7,10,10],"right_children":[2,4,6,-1,-1,8,-1,10,-1,-1,12,-1,-1],"split_conditions":[3.2725027E-1,8.768622E-2,2.6103142E-1,-3.5286486E-2,-6.6013313E-3,1.1334469E0,2.8503178E-2,3.785415E-2,-1.4090173E-2,-4.424621E-3,6.181532E-1,2.2770837E-3,1.9742211E-2],"split_indices":[6,8,8,0,0,6,0,8,0,0,6,0,0],"split_type":[0,0,0,0,0,0,0,0,0,0,0,0,0],"sum_hessian":[4.9314976E1,1.5886805E1,3.342817E1,6.335608E0,9.551197E0,2.4822933E1,8.605236E0,1.9607286E1,5.215648E0,5.6541495E0,1.3953136E1,6.7087607E0,7.2443757E0],"tree_param":{"num_deleted":"0","num_feature":"12","num_nodes":"13","size_leaf_vector":"1"}},{"base_weights":[3.6185876E-2,2.2082794E-1,-1.9812852E-1,-4.424342E-3,3.7824348E-1,-3.777616E-1,8.523755E-3,2.6646394E-2,2.2368427E-1,-8.709884E-3,-2.8311465E-2,1.63405E-2,3.3970338E-3],"categories":[],"categories_nodes":[],"categories_segments":[],"categories_sizes":[],"default_left":[0,0,0,0,0,0,0,0,0,0,0,0,0],"id":14,"left_children":[1,3,5,-1,7,9,-1,-1,11,-1,-1,-1,-1],"loss_changes":[2.1932862E0,1.4486501E0,1.5525405E0,0E0,2.6586795E-1,4.1790605E-1,0E0,0E0,1.2601614E-1,0E0,0E0,0E0,0E0],"parents":[2147483647,0,0,1,1,2,2,4,4,5,5,8,8],"right_children":[2,4,6,-1,8,10,-1,-1,12,-1,-1,-1,-1],"split_conditions":[1.51E2,2.866442E-1,3.2E2,-4.424342E-3,6.369125E-1,2.047912E1,8.523755E-3,2.6646394E-2,6.259748E-1,-8.709884E-3,-2.8311465E-2,1.63405E-2,3.3970338E-3],"split_indices":[7,6,7,0,3,10,0,0,6,0,0,0,0],"split_type":[0,0,0,0,0,0,0,0,0,0,0,0,0],"sum_hessian":[4.863132E1,2.7469452E1,2.1161867E1,9.1981325E0,1.827132E1,1.4393751E1,6.768116E0,7.585063E0,1.0686257E1,8.099914E0,6.2938375E0,5.382058E0,5.304199E0],"tree_param":{"num_deleted":"0","num_feature":"12","num_nodes":"13","size_leaf_vector":"1"}},{"base_weights":[-4.641773E-2,-3.9019558E-1,1.1517547E-1,-3.2577425E-2,-6.237374E-3,2.194734E-1,-1.0574906E-1,1.8443428E-2,1.5030303E-2,4.8393072E-4,-1.1231965E-2,6.9983313E-3,-4.771936E-3],"categories":[],"categories_nodes":[],"categories_segments":[],"categories_sizes":[],"default_left":[0,0,0,0,0,0,0,0,0,0,0,0,0],"id":15,"left_children":[1,3,5,-1,-1,7,9,-1,11,-1,-1,-1,-1],"loss_changes":[2.8347692E0,9.736757E-1,8.27214E-1,0E0,0E0,6.891031E-1,1.8010384E-1,0E0,1.7595442E-1,0E0,0E0,0E0,0E0],"parents":[2147483647,0,0,1,1,2,2,5,5,6,6,8,8],"right_children":[2,4,6,-1,-1,8,10,-1,12,-1,-1,-1,-1],"split_conditions":[3.2725027E-1,6.823513E-1,1.8E2,-3.2577425E-2,-6.237374E-3,6.969631E-1,6.674797E-1,1.8443428E-2,6.542453E-1,4.8393072E-4,-1.1231965E-2,6.9983313E-3,-4.771936E-3],"split_indices":[6,3,7,0,0,3,6,0,6,0,0,0,0],"split_type":[0,0,0,0,0,0,0,0,0,0,0,0,0],"sum_hessian":[4.8724903E1,1.5325395E1,3.3399506E1,6.7995243E0,8.52587E0,2.3000322E1,1.0399184E1,1.2541979E1,1.04583435E1,5.31574E0,5.083444E0,5.207297E0,5.251047E0],"tree_param":{"num_deleted":"0","num_feature":"12","num_nodes":"13","size_leaf_vector":"1"}},{"base_weights":[-3.835664E-2,-2.7234736E-1,2.6977342E-1,-4.0093797E-1,2.7608208E-3,9.4677925E-2,2.7604017E-2,-3.1476066E-2,-7.1590296E-3,-6.3811117E-3,1.5438302E-2],"categories":[],"categories_nodes":[],"categories_segments":[],"categories_sizes":[],"default_left":[0,0,0,0,0,0,0,0,0,0,0],"id":16,"left_children":[1,3,5,7,-1,9,-1,-1,-1,-1,-1],"loss_changes":[3.3834417E0,1.1844484E0,8.781612E-1,9.8541594E-1,0E0,7.1669555E-1,0E0,0E0,0E0,0E0,0E0],"parents":[2147483647,0,0,1,1,2,2,3,3,5,5],"right_children":[2,4,6,8,-1,10,-1,-1,-1,-1,-1],"split_conditions":[1.9984542E-1,5.998849E-1,3.1560507E-1,8.435831E-2,2.7608208E-3,1.18E2,2.7604017E-2,-3.1476066E-2,-7.1590296E-3,-6.3811117E-3,1.5438302E-2],"split_indices":[8,4,8,8,0,7,0,0,0,0,0],"split_type":[0,0,0,0,0,0,0,0,0,0,0],"sum_hessian":[4.4904736E1,2.5773375E1,1.9131363E1,1.8566193E1,7.207183E0,1.2850612E1,6.280751E0,8.869932E0,9.6962595E0,6.273379E0,6.5772324E0],"tree_param":{"num_deleted":"0","num_feature":"12","num_nodes":"11","size_leaf_vector":"1"}},{"base_weights":[-5.6229983E-2,-3.6779913E-1,8.1414744E-2,-7.7168033E-3,-2.5178337E-2,3.242946E-1,-8.932062E-2,2.0417267E-2,8.069242E-3,-2.502984E-1,1.4282502E-2,-4.0541454E-3,-1.7482907E-2],"categories":[],"categories_nodes":[],"categories_segments":[],"categories_sizes":[],"default_left":[0,0,0,0,0,0,0,0,0,0,0,0,0],"id":17,"left_children":[1,3,5,-1,-1,7,9,-1,-1,11,-1,-1,-1],"loss_changes":[2.0424984E0,2.7899897E-1,1.4077171E0,0E0,0E0,6.8116784E-2,1.2591097E0,0E0,0E0,1.728006E-1,0E0,0E0,0E0],"parents":[2147483647,0,0,1,1,2,2,5,5,6,6,9,9],"right_children":[2,4,6,-1,-1,8,10,-1,-1,12,-1,-1,-1],"split_conditions":[3.2725027E-1,4.39E2,9.2E1,-7.7168033E-3,-2.5178337E-2,6.621162E-1,3.45E2,2.0417267E-2,8.069242E-3,4.9E2,1.4282502E-2,-4.0541454E-3,-1.7482907E-2],"split_indices":[6,5,7,0,0,6,7,0,0,5,0,0,0],"split_type":[0,0,0,0,0,0,0,0,0,0,0,0,0],"sum_hessian":[4.5260376E1,1.3578605E1,3.168177E1,6.395883E0,7.182722E0,1.2948361E1,1.8733408E1,7.1427565E0,5.8056054E0,1.3525836E1,5.2075725E0,6.0480847E0,7.4777513E0],"tree_param":{"num_deleted":"0","num_feature":"12","num_nodes":"13","size_leaf_vector":"1"}},{"base_weights":[1.9688575E-2,-2.0848541E-1,3.1818298E-1,3.0970003E-3,-3.0243123E-1,4.1659573E-1,6.247711E-4,-4.4352648E-1,4.8706555E-3,6.149487E-3,2.7400902E-2,-3.0739471E-2,-8.929986E-3],"categories":[],"categories_nodes":[],"categories_segments":[],"categories_sizes":[],"default_left":[0,0,0,0,0,0,0,0,0,0,0,0,0],"id":18,"left_children":[1,3,5,-1,7,9,-1,11,-1,-1,-1,-1,-1],"loss_changes":[3.3434212E0,7.437897E-1,5.945163E-1,0E0,1.2582159E0,4.7828364E-1,0E0,5.2912736E-1,0E0,0E0,0E0,0E0,0E0],"parents":[2147483647,0,0,1,1,2,2,4,4,5,5,7,7],"right_children":[2,4,6,-1,8,10,-1,12,-1,-1,-1,-1,-1],"split_conditions":[1.805825E-1,6.143379E-1,6.112589E-1,3.0970003E-3,6.3322973E-1,4.9206868E-1,6.247711E-4,8.768622E-2,4.8706555E-3,6.149487E-3,2.7400902E-2,-3.0739471E-2,-8.929986E-3],"split_indices":[8,3,4,0,4,4,0,8,0,0,0,0,0],"split_type":[0,0,0,0,0,0,0,0,0,0,0,0,0],"sum_hessian":[4.6954475E1,2.6592934E1,2.0361542E1,6.6698484E0,1.9923084E1,1.4880865E1,5.480676E0,1.48305855E1,5.0924993E0,5.435144E0,9.445721E0,7.9762444E0,6.8543406E0],"tree_param":{"num_deleted":"0","num_feature":"12","num_nodes":"13","size_leaf_vector":"1"}},{"base_weights":[3.421847E-2,-2.5892055E-1,3.4834367E-1,-2.0205213E-2,-7.68933E-2,1.8666202E-1,3.1674698E-2,4.285394E-3,-1.3782061E-2,2.319525E-2,-4.2935084E-3],"categories":[],"categories_nodes":[],"categories_segments":[],"categories_sizes":[],"default_left":[0,0,0,0,0,0,0,0,0,0,0],"id":19,"left_children":[1,3,5,-1,7,9,-1,-1,-1,-1,-1],"loss_changes":[4.380797E0,5.672803E-1,8.6180806E-1,0E0,4.4315654E-1,1.3124495E0,0E0,0E0,0E0,0E0,0E0],"parents":[2147483647,0,0,1,1,2,2,4,4,5,5],"right_children":[2,4,6,-1,8,10,-1,-1,-1,-1,-1],"split_conditions":[1.8043487E-1,4.3040615E-2,3.144196E-1,-2.0205213E-2,2.65E2,2.1211433E-1,3.1674698E-2,4.285394E-3,-1.3782061E-2,2.319525E-2,-4.2935084E-3],"split_indices":[8,8,8,0,7,8,0,0,0,0,0],"split_type":[0,0,0,0,0,0,0,0,0,0,0],"sum_hessian":[4.549817E1,2.3461494E1,2.2036674E1,1.20673065E1,1.1394188E1,1.5342628E1,6.694047E0,6.3030767E0,5.091111E0,7.439381E0,7.903247E0],"tree_param":{"num_deleted":"0","num_feature":"12","num_nodes":"11","size_leaf_vector":"1"}},{"base_weights":[-3.734752E-2,-3.4615365E-1,1.3892141E-1,-6.052862E-3,-4.270199E-1,3.210593E-2,2.5270486E-2,-2.8967226E-2,-6.9160424E-3,1.3475227E-1,-1.0245832E-2,-7.350041E-2,2.392522E-2,-1.0704706E-2,4.507814E-3],"categories":[],"categories_nodes":[],"categories_segments":[],"categories_sizes":[],"default_left":[0,0,0,0,0,0,0,0,0,0,0,0,0,0,0],"id":20,"left_children":[1,3,5,-1,7,9,-1,-1,-1,11,-1,13,-1,-1,-1],"loss_changes":[2.8004441E0,2.3440695E-1,1.2005258E0,0E0,4.2224884E-1,6.6313034E-1,0E0,0E0,0E0,1.4592007E0,0E0,3.2439315E-1,0E0,0E0,0E0],"parents":[2147483647,0,0,1,1,2,2,4,4,5,5,9,9,11,11],"right_children":[2,4,6,-1,8,10,-1,-1,-1,12,-1,14,-1,-1,-1],"split_conditions":[1.214695E-1,1.13E2,3.1560507E-1,-6.052862E-3,2.8E2,2.08E2,2.5270486E-2,-2.8967226E-2,-6.9160424E-3,1.2E2,-1.0245832E-2,2.3788656E-1,2.392522E-2,-1.0704706E-2,4.507814E-3],"split_indices":[8,7,8,0,7,7,0,0,0,7,0,8,0,0,0],"split_type":[0,0,0,0,0,0,0,0,0,0,0,0,0,0,0],"sum_hessian":[4.9183464E1,1.7728456E1,3.145501E1,5.6724477E0,1.2056009E1,2.5409657E1,6.0453515E0,7.0062284E0,5.0497804E0,1.8326471E1,7.0831866E0,1.172094E1,6.605531E0,6.467609E0,5.2533307E0],"tree_param":{"num_deleted":"0","num_feature":"12","num_nodes":"15","size_leaf_vector":"1"}},{"base_weights":[4.691864E-2,-1.904708E-2,1.7232853E-1,8.449962E-2,2.3967508E-2,1.3706005E-2,-0E0,1.23033546E-1,-1.5701514E-2,-3.2195188E-3,2.1744035E-2],"categories":[],"categories_nodes":[],"categories_segments":[],"categories_sizes":[],"default_left":[0,0,0,0,0,0,0,0,0,0,0],"id":21,"left_children":[1,-1,3,5,-1,-1,7,9,-1,-1,-1],"loss_changes":[2.3498213E0,0E0,8.2235837E-1,4.5352477E-1,0E0,0E0,8.258922E-1,9.5613855E-1,0E0,0E0,0E0],"parents":[2147483647,0,0,2,2,3,3,6,6,7,7],"right_children":[2,-1,4,6,-1,-1,8,10,-1,-1,-1],"split_conditions":[2.404381E-2,-1.904708E-2,3.1560507E-1,3.3521816E-1,2.3967508E-2,1.3706005E-2,6.112589E-1,5.571558E-1,-1.5701514E-2,-3.2195188E-3,2.1744035E-2],"split_indices":[8,0,8,6,0,0,4,4,0,0,0],"split_type":[0,0,0,0,0,0,0,0,0,0,0],"sum_hessian":[4.195798E1,8.868027E0,3.3089954E1,2.6974392E1,6.115564E0,7.6937876E0,1.9280603E1,1.4245914E1,5.0346904E0,9.193412E0,5.052502E0],"tree_param":{"num_deleted":"0","num_feature":"12","num_nodes":"11","size_leaf_vector":"1"}},{"base_weights":[6.685544E-2,1.8714821E-1,-1.08205184E-1,-1.2735472E-3,2.4901311E-1,-2.9703057E-1,1.1657592E-2,3.9030793E-1,2.549755E-3,-1.2737083E-3,-2.6088292E-2,1.1639022E-2,2.4694977E-2],"categories":[],"categories_nodes":[],"categories_segments":[],"categories_sizes":[],"default_left":[0,0,0,0,0,0,0,0,0,0,0,0,0],"id":22,"left_children":[1,3,5,-1,7,9,-1,11,-1,-1,-1,-1,-1],"loss_changes":[1.0443466E0,4.1419208E-1,1.3614913E0,0E0,5.839236E-1,7.541882E-1,0E0,2.5647283E-2,0E0,0E0,0E0,0E0,0E0],"parents":[2147483647,0,0,1,1,2,2,4,4,5,5,7,7],"right_children":[2,4,6,-1,8,10,-1,12,-1,-1,-1,-1,-1],"split_conditions":[1.8E2,2.866442E-1,5.981407E-1,-1.2735472E-3,6.287976E-1,4.9414325E-1,1.1657592E-2,5.571558E-1,2.549755E-3,-1.2737083E-3,-2.6088292E-2,1.1639022E-2,2.4694977E-2],"split_indices":[7,6,4,0,6,4,0,4,0,0,0,0,0],"split_type":[0,0,0,0,0,0,0,0,0,0,0,0,0],"sum_hessian":[4.7256073E1,2.8307072E1,1.8949E1,6.1482916E0,2.2158781E1,1.2472501E1,6.476499E0,1.2070124E1,1.0088657E1,6.3535624E0,6.1189384E0,6.459641E0,5.610482E0],"tree_param":{"num_deleted":"0","num_feature":"12","num_nodes":"13","size_leaf_vector":"1"}},{"base_weights":[-3.718125E-3,-3.085307E-1,3.1846166E-1,-4.1829437E-1,-0E0,1.8713668E-1,2.7665464E-2,-4.8832996E-3,-3.2536745E-2,-0E0,1.548865E-2],"categories":[],"categories_nodes":[],"categories_segments":[],"categories_sizes":[],"default_left":[0,0,0,0,0,0,0,0,0,0,0],"id":23,"left_children":[1,3,5,7,-1,9,-1,-1,-1,-1,-1],"loss_changes":[4.7449503E0,8.134129E-1,5.422628E-1,1.221158E0,0E0,3.9384425E-1,0E0,0E0,0E0,0E0,0E0],"parents":[2147483647,0,0,1,1,2,2,3,3,5,5],"right_children":[2,4,6,8,-1,10,-1,-1,-1,-1,-1],"split_conditions":[1.7063856E-1,6.085235E-1,3.1560507E-1,4.9764094E-1,-0E0,5.2264917E-1,2.7665464E-2,-4.8832996E-3,-3.2536745E-2,-0E0,1.548865E-2],"split_indices":[8,4,8,4,0,6,0,0,0,0,0],"split_type":[0,0,0,0,0,0,0,0,0,0,0],"sum_hessian":[4.632666E1,2.3986197E1,2.2340464E1,1.7242416E1,6.743781E0,1.5753743E1,6.58672E0,8.024212E0,9.218204E0,6.5352163E0,9.218526E0],"tree_param":{"num_deleted":"0","num_feature":"12","num_nodes":"11","size_leaf_vector":"1"}},{"base_weights":[-6.2603034E-2,-2.44617E-2,1.24320954E-1,-0E0,1.8205214E-2,1.8296063E-1,-1.650366E-2,-2.5078298E-3,1.666225E-2],"categories":[],"categories_nodes":[],"categories_segments":[],"categories_sizes":[],"default_left":[0,0,0,0,0,0,0,0,0],"id":24,"left_children":[1,-1,3,5,-1,7,-1,-1,-1],"loss_changes":[3.645099E0,0E0,9.749167E-1,1.3745365E0,0E0,5.4659617E-1,0E0,0E0,0E0],"parents":[2147483647,0,0,2,2,3,3,5,5],"right_children":[2,-1,4,6,-1,8,-1,-1,-1],"split_conditions":[9.551708E-2,-2.44617E-2,2.6103142E-1,5.8012223E-1,1.8205214E-2,4.04E2,-1.650366E-2,-2.5078298E-3,1.666225E-2],"split_indices":[8,0,8,4,0,5,0,0,0],"split_type":[0,0,0,0,0,0,0,0,0],"sum_hessian":[4.34877E1,1.2919111E1,3.0568592E1,2.0534344E1,1.0034248E1,1.3316801E1,7.217542E0,5.220204E0,8.096597E0],"tree_param":{"num_deleted":"0","num_feature":"12","num_nodes":"9","size_leaf_vector":"1"}},{"base_weights":[1.0167127E-2,-3.5306367E-1,2.2024544E-1,-2.8787151E-2,1.2406943E-3,9.7484075E-2,2.3949241E-2,-1.2709107E-3,1.5063027E-2,6.586835E-3,-1.1785853E-2],"categories":[],"categories_nodes":[],"categories_segments":[],"categories_sizes":[],"default_left":[0,0,0,0,0,0,0,0,0,0,0],"id":25,"left_children":[1,3,5,-1,-1,7,-1,9,-1,-1,-1],"loss_changes":[3.554924E0,1.4974213E0,8.4128475E-1,0E0,0E0,4.6724924E-1,0E0,5.1816887E-1,0E0,0E0,0E0],"parents":[2147483647,0,0,1,1,2,2,5,5,7,7],"right_children":[2,4,6,-1,-1,8,-1,10,-1,-1,-1],"split_conditions":[1.214695E-1,5.998849E-1,3.015005E-1,-2.8787151E-2,1.2406943E-3,7.256886E-1,2.3949241E-2,5.8012223E-1,1.5063027E-2,6.586835E-3,-1.1785853E-2],"split_indices":[8,4,8,0,0,3,0,4,0,0,0],"split_type":[0,0,0,0,0,0,0,0,0,0,0],"sum_hessian":[4.4742188E1,1.5971102E1,2.8771086E1,9.88625E0,6.0848527E0,2.0708836E1,8.06225E0,1.4287701E1,6.4211345E0,9.123341E0,5.16436E0],"tree_param":{"num_deleted":"0","num_feature":"12","num_nodes":"11","size_leaf_vector":"1"}},{"base_weights":[1.9098675E-2,-2.0655866E-1,3.3320996E-1,-5.835218E-2,-2.0841105E-2,2.1628739E-1,2.400249E-2,-1.4772986E-2,4.9078036E-3,2.1598099E-2,5.181861E-4],"categories":[],"categories_nodes":[],"categories_segments":[],"categories_sizes":[],"default_left":[0,0,0,0,0,0,0,0,0,0,0],"id":26,"left_children":[1,3,5,7,-1,9,-1,-1,-1,-1,-1],"loss_changes":[3.2366312E0,7.488446E-1,1.5578747E-1,6.7547685E-1,0E0,5.231142E-1,0E0,0E0,0E0,0E0,0E0],"parents":[2147483647,0,0,1,1,2,2,3,3,5,5],"right_children":[2,4,6,8,-1,10,-1,-1,-1,-1,-1],"split_conditions":[1.8043487E-1,7.231558E-1,3.015005E-1,3.1041738E-1,-2.0841105E-2,2.1211433E-1,2.400249E-2,-1.4772986E-2,4.9078036E-3,2.1598099E-2,5.181861E-4],"split_indices":[8,3,8,6,0,8,0,0,0,0,0],"split_type":[0,0,0,0,0,0,0,0,0,0,0],"sum_hessian":[4.3512856E1,2.5335728E1,1.8177126E1,1.588918E1,9.446548E0,1.1875284E1,6.301842E0,6.218847E0,9.670333E0,5.026975E0,6.848309E0],"tree_param":{"num_deleted":"0","num_feature":"12","num_nodes":"11","size_leaf_vector":"1"}},{"base_weights":[1.5870484E-2,-1.7457452E-1,1.1187007E-1,-1.4175429E-2,9.892321E-4,3.0919066E-1,-7.387405E-2,8.522047E-3,2.0138523E-2,3.4000434E-2,-1.205168E-2,-5.98311E-3,9.665146E-3],"categories":[],"categories_nodes":[],"categories_segments":[],"categories_sizes":[],"default_left":[0,0,0,0,0,0,0,0,0,0,0,0,0],"id":27,"left_children":[1,3,5,-1,-1,7,9,-1,-1,11,-1,-1,-1],"loss_changes":[9.18504E-1,3.8419646E-1,1.2880503E0,0E0,0E0,9.321761E-2,3.5342762E-1,0E0,0E0,3.1080356E-1,0E0,0E0,0E0],"parents":[2147483647,0,0,1,1,2,2,5,5,6,6,9,9],"right_children":[2,4,6,-1,-1,8,10,-1,-1,12,-1,-1,-1],"split_conditions":[3.2725027E-1,6.085235E-1,6.287976E-1,-1.4175429E-2,9.892321E-4,5.571558E-1,2.047912E1,8.522047E-3,2.0138523E-2,1.0211393E0,-1.205168E-2,-5.98311E-3,9.665146E-3],"split_indices":[6,4,6,0,0,4,10,0,0,6,0,0,0],"split_type":[0,0,0,0,0,0,0,0,0,0,0,0,0],"sum_hessian":[4.8513897E1,1.5635621E1,3.2878277E1,1.0055539E1,5.5800824E0,1.5881128E1,1.6997149E1,7.963574E0,7.917555E0,1.0451052E1,6.546097E0,5.126829E0,5.324222E0],"tree_param":{"num_deleted":"0","num_feature":"12","num_nodes":"13","size_leaf_vector":"1"}},{"base_weights":[-1.6468244E-2,-2.6063368E-2,1.2905937E-1,-2.5413837E-3,2.4622856E-2,-1.4439898E-2,1.0173429E-1,2.1524243E-1,-4.8392853E-3,2.577059E-3,1.5955312E-2],"categories":[],"categories_nodes":[],"categories_segments":[],"categories_sizes":[],"default_left":[0,0,0,0,0,0,0,0,0,0,0],"id":28,"left_children":[1,-1,3,5,-1,-1,7,9,-1,-1,-1],"loss_changes":[3.4091692E0,0E0,1.750118E0,8.5067374E-1,0E0,0E0,4.8767424E-1,1.7563653E-1,0E0,0E0,0E0],"parents":[2147483647,0,0,2,2,3,3,6,6,7,7],"right_children":[2,-1,4,6,-1,-1,8,10,-1,-1,-1],"split_conditions":[2.7124354E-1,-2.6063368E-2,2.7689233E-1,2.404381E-2,2.4622856E-2,-1.4439898E-2,2.047912E1,6.259748E-1,-4.8392853E-3,2.577059E-3,1.5955312E-2],"split_indices":[6,0,8,8,0,0,10,6,0,0,0],"split_type":[0,0,0,0,0,0,0,0,0,0,0],"sum_hessian":[4.395745E1,9.412628E0,3.4544823E1,2.588769E1,8.657135E0,6.695821E0,1.9191868E1,1.2477231E1,6.7146373E0,5.7979827E0,6.6792483E0],"tree_param":{"num_deleted":"0","num_feature":"12","num_nodes":"11","size_leaf_vector":"1"}},{"base_weights":[4.7707077E-2,-3.7887808E-2,2.6030777E-2,-1.590123E-2,5.303246E-2,-1.9106466E-3,1.1703894E-2,8.345301E-3,-1.1919354E-1,-1.6284166E-2,1.1897328E-3],"categories":[],"categories_nodes":[],"categories_segments":[],"categories_sizes":[],"default_left":[0,0,0,0,0,0,0,0,0,0,0],"id":29,"left_children":[1,3,-1,-1,5,7,-1,-1,9,-1,-1],"loss_changes":[2.0128455E0,1.0987452E0,0E0,0E0,3.406863E-1,5.104727E-1,0E0,0E0,5.0135505E-1,0E0,0E0],"parents":[2147483647,0,0,1,1,4,4,5,5,8,8],"right_children":[2,4,-1,-1,6,8,-1,-1,10,-1,-1],"split_conditions":[3.1560507E-1,2.404381E-2,2.6030777E-2,-1.590123E-2,2.67E2,6.078452E-1,1.1703894E-2,8.345301E-3,5.0647855E-1,-1.6284166E-2,1.1897328E-3],"split_indices":[8,8,0,0,7,3,0,0,4,0,0],"split_type":[0,0,0,0,0,0,0,0,0,0,0],"sum_hessian":[4.7046387E1,4.0436024E1,6.6103625E0,9.565509E0,3.0870516E1,2.4018541E1,6.8519745E0,9.32312E0,1.469542E1,5.7759767E0,8.919443E0],"tree_param":{"num_deleted":"0","num_feature":"12","num_nodes":"11","size_leaf_vector":"1"}},{"base_weights":[-3.3294283E-2,-2.1827026E-1,2.2326298E-1,-3.5159245E-1,3.9937873E-3,3.4945482E-1,-3.693273E-3,-1.105736E-3,-4.5798823E-1,2.624301E-2,9.253165E-3,-2.886011E-2,-1.2501532E-2],"categories":[],"categories_nodes":[],"categories_segments":[],"categories_sizes":[],"default_left":[0,0,0,0,0,0,0,0,0,0,0,0,0],"id":30,"left_children":[1,3,5,7,-1,9,-1,-1,11,-1,-1,-1,-1],"loss_changes":[2.3265448E0,1.1931902E0,8.1753623E-1,6.4992785E-1,0E0,2.5620437E-1,0E0,0E0,1.4453483E-1,0E0,0E0,0E0,0E0],"parents":[2147483647,0,0,1,1,2,2,3,3,5,5,8,8],"right_children":[2,4,6,8,-1,10,-1,-1,12,-1,-1,-1,-1],"split_conditions":[1.7218076E-1,5.981407E-1,5.83E2,6.220719E-1,3.9937873E-3,6.4397967E-1,-3.693273E-3,-1.105736E-3,8.768622E-2,2.624301E-2,9.253165E-3,-2.886011E-2,-1.2501532E-2],"split_indices":[8,4,5,3,0,3,0,0,8,0,0,0,0],"split_type":[0,0,0,0,0,0,0,0,0,0,0,0,0],"sum_hessian":[4.7008007E1,2.7627665E1,1.938034E1,1.9198708E1,8.428958E0,1.3715676E1,5.6646647E0,5.2106214E0,1.3988086E1,5.2804255E0,8.435251E0,7.4568944E0,6.5311913E0],"tree_param":{"num_deleted":"0","num_feature":"12","num_nodes":"13","size_leaf_vector":"1"}},{"base_weights":[-4.4463415E-2,-1.4669815E-1,2.9454455E-2,-2.277773E-2,-6.474811E-3,1.0871821E-1,-1.7623436E-1,-2.6836587E-2,1.6779989E-2,-1.6813664E-2,-0E0,-7.318781E-3,4.3568793E-3],"categories":[],"categories_nodes":[],"categories_segments":[],"categories_sizes":[],"default_left":[0,0,0,0,0,0,0,0,0,0,0,0,0],"id":31,"left_children":[1,3,-1,-1,5,7,9,11,-1,-1,-1,-1,-1],"loss_changes":[2.973506E0,1.6790888E0,0E0,0E0,5.8678997E-1,5.736245E-1,3.2916054E-1,1.7554839E-1,0E0,0E0,0E0,0E0,0E0],"parents":[2147483647,0,0,1,1,4,4,5,5,6,6,7,7],"right_children":[2,4,-1,-1,6,8,10,12,-1,-1,-1,-1,-1],"split_conditions":[3.4334895E-1,3.336211E-2,2.9454455E-2,-2.277773E-2,5.03E2,5.763575E-1,6.67E2,3.83E2,1.6779989E-2,-1.6813664E-2,-0E0,-7.318781E-3,4.3568793E-3],"split_indices":[8,8,0,0,5,4,5,5,0,0,0,0,0],"split_type":[0,0,0,0,0,0,0,0,0,0,0,0,0],"sum_hessian":[4.425673E1,3.8905018E1,5.3517113E0,1.1223084E1,2.7681932E1,1.63547E1,1.1327232E1,1.0513915E1,5.840785E0,5.296677E0,6.030555E0,5.4211636E0,5.0927515E0],"tree_param":{"num_deleted":"0","num_feature":"12","num_nodes":"13","size_leaf_vector":"1"}},{"base_weights":[-2.6764888E-2,-2.2517823E-1,2.3260447E-1,-2.8740358E-1,4.8004693E-4,7.753044E-2,2.717028E-2,-2.7399136E-2,-8.997689E-2,1.1307573E-2,-5.5342745E-3,-1.2383172E-2,2.3382667E-3],"categories":[],"categories_nodes":[],"categories_segments":[],"categories_sizes":[],"default_left":[0,0,0,0,0,0,0,0,0,0,0,0,0],"id":32,"left_children":[1,3,5,7,-1,9,-1,-1,11,-1,-1,-1,-1],"loss_changes":[2.5092776E0,4.364437E-1,9.0656865E-1,1.0357785E0,0E0,4.6658298E-1,0E0,0E0,3.3614326E-1,0E0,0E0,0E0,0E0],"parents":[2147483647,0,0,1,1,2,2,3,3,5,5,8,8],"right_children":[2,4,6,8,-1,10,-1,-1,12,-1,-1,-1,-1],"split_conditions":[1.8043487E-1,6.224722E-1,3.1560507E-1,3.2725027E-1,4.8004693E-4,5.03E2,2.717028E-2,-2.7399136E-2,8.435831E-2,1.1307573E-2,-5.5342745E-3,-1.2383172E-2,2.3382667E-3],"split_indices":[8,4,8,6,0,5,0,0,8,0,0,0,0],"split_type":[0,0,0,0,0,0,0,0,0,0,0,0,0],"sum_hessian":[4.6756138E1,2.678411E1,1.997203E1,2.1332087E1,5.4520216E0,1.4372222E1,5.5998096E0,8.211615E0,1.3120472E1,8.21509E0,6.1571326E0,6.0564775E0,7.063994E0],"tree_param":{"num_deleted":"0","num_feature":"12","num_nodes":"13","size_leaf_vector":"1"}},{"base_weights":[4.1328505E-2,-1.7242692E-2,1.0344783E-1,1.6223474E-1,-5.023624E-2,-3.6721935E-3,2.1567284E-1,-8.123511E-3,2.2680506E-3,1.683055E-2,1.3245618E-1,2.8595468E-1,-6.8476372E-3,6.4861835E-3,1.9198602E-2],"categories":[],"categories_nodes":[],"categories_segments":[],"categories_sizes":[],"default_left":[0,0,0,0,0,0,0,0,0,0,0,0,0,0,0],"id":33,"left_children":[1,-1,3,5,7,-1,9,-1,-1,-1,11,13,-1,-1,-1],"loss_changes":[1.1286285E0,0E0,3.9072686E-1,4.134283E-1,1.4425053E-1,0E0,1.6426992E-1,0E0,0E0,0E0,7.650666E-1,7.512331E-2,0E0,0E0,0E0],"parents":[2147483647,0,0,2,2,3,3,4,4,6,6,10,10,11,11],"right_children":[2,-1,4,6,8,-1,10,-1,-1,-1,12,14,-1,-1,-1],"split_conditions":[2.1027832E-1,-1.7242692E-2,6.71E2,1.7E2,6.0442495E-1,-3.6721935E-3,4.963604E-1,-8.123511E-3,2.2680506E-3,1.683055E-2,2.047912E1,4.63E2,-6.8476372E-3,6.4861835E-3,1.9198602E-2],"split_indices":[6,0,5,5,6,0,6,0,0,0,10,5,0,0,0],"split_type":[0,0,0,0,0,0,0,0,0,0,0,0,0,0,0],"sum_hessian":[4.5566204E1,5.460179E0,4.0106026E1,2.9439816E1,1.0666209E1,5.0263505E0,2.4413465E1,5.0655875E0,5.6006217E0,8.220293E0,1.6193172E1,1.0513032E1,5.6801405E0,5.3420234E0,5.1710086E0],"tree_param":{"num_deleted":"0","num_feature":"12","num_nodes":"15","size_leaf_vector":"1"}},{"base_weights":[3.3947844E-2,-1.8613337E-2,1.006813E-1,1.781959E-1,-3.179534E-2,7.712366E-2,1.7202606E-2,-9.737636E-3,4.3962593E-3,-2.8861808E-3,1.2783842E-2],"categories":[],"categories_nodes":[],"categories_segments":[],"categories_sizes":[],"default_left":[0,0,0,0,0,0,0,0,0,0,0],"id":34,"left_children":[1,-1,3,5,7,9,-1,-1,-1,-1,-1],"loss_changes":[1.275144E0,0E0,4.4208398E-1,3.762424E-1,3.3086318E-1,4.716534E-1,0E0,0E0,0E0,0E0,0E0],"parents":[2147483647,0,0,2,2,3,3,4,4,5,5],"right_children":[2,-1,4,6,8,10,-1,-1,-1,-1,-1],"split_conditions":[1.8262093E-1,-1.8613337E-2,6.674797E-1,5.7776E-1,1.0211393E0,2.047912E1,1.7202606E-2,-9.737636E-3,4.3962593E-3,-2.8861808E-3,1.2783842E-2],"split_indices":[6,0,6,6,6,10,0,0,0,0,0],"split_type":[0,0,0,0,0,0,0,0,0,0,0],"sum_hessian":[4.565846E1,5.584997E0,4.0073463E1,2.5539536E1,1.4533928E1,1.7153925E1,8.38561E0,6.2437754E0,8.290153E0,9.839544E0,7.3143816E0],"tree_param":{"num_deleted":"0","num_feature":"12","num_nodes":"11","size_leaf_vector":"1"}},{"base_weights":[-8.144619E-3,-2.6350656E-1,2.5570533E-1,-0E0,-3.5843146E-1,1.592675E-1,2.2121578E-2,-2.3937728E-2,-1.034352E-2,1.749116E-2,-0E0],"categories":[],"categories_nodes":[],"categories_segments":[],"categories_sizes":[],"default_left":[0,0,0,0,0,0,0,0,0,0,0],"id":35,"left_children":[1,3,5,-1,7,9,-1,-1,-1,-1,-1],"loss_changes":[3.2353399E0,6.0169995E-1,2.9135263E-1,0E0,1.5999818E-1,5.216919E-1,0E0,0E0,0E0,0E0,0E0],"parents":[2147483647,0,0,1,1,2,2,4,4,5,5],"right_children":[2,4,6,-1,8,10,-1,-1,-1,-1,-1],"split_conditions":[1.8043487E-1,6.078452E-1,3.1560507E-1,-0E0,3.785415E-2,2.1211433E-1,2.2121578E-2,-2.3937728E-2,-1.034352E-2,1.749116E-2,-0E0],"split_indices":[8,3,8,0,8,8,0,0,0,0,0],"split_type":[0,0,0,0,0,0,0,0,0,0,0],"sum_hessian":[4.6006676E1,2.3572653E1,2.2434021E1,6.6084285E0,1.6964224E1,1.6368652E1,6.065369E0,7.8854256E0,9.078799E0,6.8631864E0,9.505466E0],"tree_param":{"num_deleted":"0","num_feature":"12","num_nodes":"11","size_leaf_vector":"1"}},{"base_weights":[-1.7881924E-3,-2.2356184E-2,1.0588665E-1,2.8790912E-1,1.1381153E-3,1.9758293E-2,6.8090633E-3,-1.1293483E-1,1.6840687E-2,-2.091333E-1,3.9128065E-3,-2.3885528E-3,-1.5779056E-2],"categories":[],"categories_nodes":[],"categories_segments":[],"categories_sizes":[],"default_left":[0,0,0,0,0,0,0,0,0,0,0,0,0],"id":36,"left_children":[1,-1,3,5,7,-1,-1,9,-1,11,-1,-1,-1],"loss_changes":[2.1113493E0,0E0,6.3270974E-1,9.368312E-2,9.5602167E-1,0E0,0E0,3.6020464E-1,0E0,1.64738E-1,0E0,0E0,0E0],"parents":[2147483647,0,0,2,2,3,3,4,4,7,7,9,9],"right_children":[2,-1,4,6,8,-1,-1,10,-1,12,-1,-1,-1],"split_conditions":[2.4187031E-1,-2.2356184E-2,6.369125E-1,1.06E2,7.754597E-1,1.9758293E-2,6.8090633E-3,2.61E2,1.6840687E-2,6.542453E-1,3.9128065E-3,-2.3885528E-3,-1.5779056E-2],"split_indices":[6,0,3,7,3,0,0,7,0,6,0,0,0],"split_type":[0,0,0,0,0,0,0,0,0,0,0,0,0],"sum_hessian":[4.1332027E1,7.6146326E0,3.3717392E1,1.13285055E1,2.2388887E1,5.3107867E0,6.017719E0,1.6983145E1,5.4057436E0,1.1583868E1,5.399276E0,5.55355E0,6.0303183E0],"tree_param":{"num_deleted":"0","num_feature":"12","num_nodes":"13","size_leaf_vector":"1"}},{"base_weights":[-0E0,-2.3600814E-1,3.0239135E-1,-3.4756398E-1,-7.079596E-4,1.8932693E-1,2.450913E-2,-2.2509627E-2,-5.7139373E-3,1.5153228E-2,2.1349806E-3],"categories":[],"categories_nodes":[],"categories_segments":[],"categories_sizes":[],"default_left":[0,0,0,0,0,0,0,0,0,0,0],"id":37,"left_children":[1,3,5,7,-1,9,-1,-1,-1,-1,-1],"loss_changes":[3.3347642E0,6.092396E-1,2.7371502E-1,3.0253458E-1,0E0,1.9820571E-1,0E0,0E0,0E0,0E0,0E0],"parents":[2147483647,0,0,1,1,2,2,3,3,5,5],"right_children":[2,4,6,8,-1,10,-1,-1,-1,-1,-1],"split_conditions":[1.8043487E-1,8.768622E-2,3.1560507E-1,5.981407E-1,-7.079596E-4,2.1211433E-1,2.450913E-2,-2.2509627E-2,-5.7139373E-3,1.5153228E-2,2.1349806E-3],"split_indices":[8,8,8,4,0,8,0,0,0,0,0],"split_type":[0,0,0,0,0,0,0,0,0,0,0],"sum_hessian":[4.4740158E1,2.5277622E1,1.9462534E1,1.6142836E1,9.134787E0,1.3734199E1,5.728335E0,1.026745E1,5.8753858E0,6.749647E0,6.9845514E0],"tree_param":{"num_deleted":"0","num_feature":"12","num_nodes":"11","size_leaf_vector":"1"}},{"base_weights":[5.1151082E-2,-2.5679645E-1,2.565125E-1,-2.4544876E-3,-3.6365634E-1,1.568752E-1,2.8379336E-2,-2.5464648E-2,-6.8001985E-3,-0E0,2.4626718E-1,1.5689269E-2,5.6140586E-3],"categories":[],"categories_nodes":[],"categories_segments":[],"categories_sizes":[],"default_left":[0,0,0,0,0,0,0,0,0,0,0,0,0],"id":38,"left_children":[1,3,5,-1,7,9,-1,-1,-1,-1,11,-1,-1],"loss_changes":[3.0265548E0,3.6336577E-1,7.305888E-1,0E0,2.6720107E-1,3.255549E-1,0E0,0E0,0E0,0E0,5.6713104E-2,0E0,0E0],"parents":[2147483647,0,0,1,1,2,2,4,4,5,5,10,10],"right_children":[2,4,6,-1,8,10,-1,-1,-1,-1,12,-1,-1],"split_conditions":[1.214695E-1,1.28E2,3.4334895E-1,-2.4544876E-3,2.8E2,5.6222034E-1,2.8379336E-2,-2.5464648E-2,-6.8001985E-3,-0E0,5.03E2,1.5689269E-2,5.6140586E-3],"split_indices":[8,7,8,0,7,6,0,0,0,0,5,0,0],"split_type":[0,0,0,0,0,0,0,0,0,0,0,0,0],"sum_hessian":[4.5816673E1,1.8035028E1,2.7781643E1,6.9402504E0,1.1094779E1,2.2424747E1,5.356896E0,5.7438397E0,5.3509393E0,8.551364E0,1.38733835E1,7.836264E0,6.03712E0],"tree_param":{"num_deleted":"0","num_feature":"12","num_nodes":"13","size_leaf_vector":"1"}},{"base_weights":[1.4189192E-2,-1.4830922E-1,2.7764124E-1,-5.8556337E-2,-1.5718173E-2,1.3617617E-1,2.4094969E-2,7.537729E-2,-1.1386759E-2,6.012881E-4,1.0871266E-2,-3.2188327E-3,1.1384469E-2],"categories":[],"categories_nodes":[],"categories_segments":[],"categories_sizes":[],"default_left":[0,0,0,0,0,0,0,0,0,0,0,0,0],"id":39,"left_children":[1,3,5,7,-1,9,-1,11,-1,-1,-1,-1,-1],"loss_changes":[1.9981903E0,3.691206E-1,3.9000392E-1,4.883619E-1,0E0,9.81379E-2,0E0,2.7903312E-1,0E0,0E0,0E0,0E0,0E0],"parents":[2147483647,0,0,1,1,2,2,3,3,5,5,7,7],"right_children":[2,4,6,8,-1,10,-1,12,-1,-1,-1,-1,-1],"split_conditions":[1.9984542E-1,7.3139083E-1,3.1560507E-1,6.674797E-1,-1.5718173E-2,5.571558E-1,2.4094969E-2,3.3521816E-1,-1.1386759E-2,6.012881E-4,1.0871266E-2,-3.2188327E-3,1.1384469E-2],"split_indices":[8,3,8,6,0,4,0,6,0,0,0,0,0],"split_type":[0,0,0,0,0,0,0,0,0,0,0,0,0],"sum_hessian":[4.4411255E1,2.7504087E1,1.6907167E1,1.9122925E1,8.381162E0,1.1262942E1,5.644224E0,1.0652798E1,8.470127E0,5.3962116E0,5.866731E0,5.514114E0,5.1386843E0],"tree_param":{"num_deleted":"0","num_feature":"12","num_nodes":"13","size_leaf_vector":"1"}},{"base_weights":[5.0934672E-2,-1.7483567E-1,3.127454E-1,-1.8697983E-2,-4.029217E-2,2.274822E-1,2.3868144E-2,6.2569514E-2,-1.1938718E-2,1.916268E-2,1.1666957E-1,5.036266E-3,-0E0,1.4961596E-3,8.757651E-3],"categories":[],"categories_nodes":[],"categories_segments":[],"categories_sizes":[],"default_left":[0,0,0,0,0,0,0,0,0,0,0,0,0,0,0],"id":40,"left_children":[1,3,5,-1,7,9,-1,11,-1,-1,13,-1,-1,-1,-1],"loss_changes":[2.8012412E0,6.202798E-1,1.2930918E-1,0E0,3.6934146E-1,1.9502538E-1,0E0,1.7173138E-2,0E0,0E0,3.320515E-2,0E0,0E0,0E0,0E0],"parents":[2147483647,0,0,1,1,2,2,4,4,5,5,7,7,10,10],"right_children":[2,4,6,-1,8,10,-1,12,-1,-1,14,-1,-1,-1,-1],"split_conditions":[1.8043487E-1,2.404381E-2,3.2986483E-1,-1.8697983E-2,7.2115695E-1,2.1211433E-1,2.3868144E-2,4.63E2,-1.1938718E-2,1.916268E-2,2.7689233E-1,5.036266E-3,-0E0,1.4961596E-3,8.757651E-3],"split_indices":[8,8,8,0,3,8,0,5,0,0,8,0,0,0,0],"split_type":[0,0,0,0,0,0,0,0,0,0,0,0,0,0,0],"sum_hessian":[4.523267E1,2.4261347E1,2.0971323E1,8.765584E0,1.5495763E1,1.5784918E1,5.186405E0,1.0325564E1,5.1701984E0,5.1643286E0,1.0620589E1,5.0629387E0,5.262626E0,5.5741673E0,5.046422E0],"tree_param":{"num_deleted":"0","num_feature":"12","num_nodes":"15","size_leaf_vector":"1"}},{"base_weights":[-0E0,-1.9944642E-1,2.4190885E-1,-3.046153E-1,7.820093E-3,3.4554958E-1,-5.3470506E-4,-2.2157552E-3,-4.4873708E-1,2.0374548E-2,9.799807E-3,-2.7126065E-2,-1.2885906E-2],"categories":[],"categories_nodes":[],"categories_segments":[],"categories_sizes":[],"default_left":[0,0,0,0,0,0,0,0,0,0,0,0,0],"id":41,"left_children":[1,3,5,7,-1,9,-1,-1,11,-1,-1,-1,-1],"loss_changes":[2.291595E0,1.033875E0,6.0044587E-1,7.033019E-1,0E0,3.985882E-3,0E0,0E0,1.1195898E-2,0E0,0E0,0E0,0E0],"parents":[2147483647,0,0,1,1,2,2,3,3,5,5,8,8],"right_children":[2,4,6,8,-1,10,-1,-1,12,-1,-1,-1,-1],"split_conditions":[1.8043487E-1,6.224722E-1,6.220693E-1,6.143379E-1,7.820093E-3,7.149247E-1,-5.3470506E-4,-2.2157552E-3,8.435831E-2,2.0374548E-2,9.799807E-3,-2.7126065E-2,-1.2885906E-2],"split_indices":[8,4,4,3,0,3,0,0,8,0,0,0,0],"split_type":[0,0,0,0,0,0,0,0,0,0,0,0,0],"sum_hessian":[4.5471924E1,2.4956797E1,2.0515125E1,1.9591606E1,5.3651905E0,1.456653E1,5.948595E0,7.694969E0,1.1896638E1,8.607953E0,5.9585767E0,6.3938227E0,5.502815E0],"tree_param":{"num_deleted":"0","num_feature":"12","num_nodes":"13","size_leaf_vector":"1"}},{"base_weights":[9.782887E-3,-2.2915255E-1,2.5921327E-1,-2.2952927E-2,-7.7317126E-2,1.4455949E-1,2.7267752E-2,-1.1976945E-2,6.48627E-3,-1.2649697E-3,1.5622913E-2],"categories":[],"categories_nodes":[],"categories_segments":[],"categories_sizes":[],"default_left":[0,0,0,0,0,0,0,0,0,0,0],"id":42,"left_children":[1,3,5,-1,7,9,-1,-1,-1,-1,-1],"loss_changes":[2.8157778E0,7.45937E-1,6.1583316E-1,0E0,5.751349E-1,5.5648375E-1,0E0,0E0,0E0,0E0,0E0],"parents":[2147483647,0,0,1,1,2,2,4,4,5,5],"right_children":[2,4,6,-1,8,10,-1,-1,-1,-1,-1],"split_conditions":[1.7218076E-1,3.2725027E-1,3.4334895E-1,-2.2952927E-2,6.33E2,6.57058E-1,2.7267752E-2,-1.1976945E-2,6.48627E-3,-1.2649697E-3,1.5622913E-2],"split_indices":[8,6,8,0,5,3,0,0,0,0,0],"split_type":[0,0,0,0,0,0,0,0,0,0,0],"sum_hessian":[4.5199257E1,2.292205E1,2.2277206E1,8.050362E0,1.487169E1,1.7228584E1,5.048622E0,8.521202E0,6.350487E0,8.690425E0,8.538159E0],"tree_param":{"num_deleted":"0","num_feature":"12","num_nodes":"11","size_leaf_vector":"1"}},{"base_weights":[-0E0,-2.956673E-1,1.674344E-1,-1.9619416E-2,-3.4224566E-3,6.227424E-2,2.1234782E-2,1.4869511E-1,-4.7234446E-3,1.3080264E-2,-9.53326E-4],"categories":[],"categories_nodes":[],"categories_segments":[],"categories_sizes":[],"default_left":[0,0,0,0,0,0,0,0,0,0,0],"id":43,"left_children":[1,3,5,-1,-1,7,-1,9,-1,-1,-1],"loss_changes":[2.195433E0,2.8080523E-1,6.855773E-1,0E0,0E0,3.094567E-1,0E0,3.0577895E-1,0E0,0E0,0E0],"parents":[2147483647,0,0,1,1,2,2,5,5,7,7],"right_children":[2,4,6,-1,-1,8,-1,10,-1,-1,-1],"split_conditions":[8.768622E-2,2.404381E-2,3.015005E-1,-1.9619416E-2,-3.4224566E-3,2.1211433E-1,2.1234782E-2,2.08E2,-4.7234446E-3,1.3080264E-2,-9.53326E-4],"split_indices":[8,8,8,0,0,8,0,7,0,0,0],"split_type":[0,0,0,0,0,0,0,0,0,0,0],"sum_hessian":[4.2215466E1,1.5096432E1,2.7119034E1,9.770392E0,5.326039E0,2.0407768E1,6.711265E0,1.3599157E1,6.8086114E0,8.15035E0,5.4488077E0],"tree_param":{"num_deleted":"0","num_feature":"12","num_nodes":"11","size_leaf_vector":"1"}},{"base_weights":[1.3770921E-2,-8.0862634E-2,1.3333401E-1,2.8979344E-2,-2.018947E-2,-7.534437E-2,1.814908E-2,1.2262472E-2,-7.2778195E-2,4.5116013E-3,-1.2305158E-2,-1.108292E-2,4.5744325E-3],"categories":[],"categories_nodes":[],"categories_segments":[],"categories_sizes":[],"default_left":[0,0,0,0,0,0,0,0,0,0,0,0,0],"id":44,"left_children":[1,3,5,7,-1,9,-1,-1,11,-1,-1,-1,-1],"loss_changes":[5.0490355E-1,9.101869E-1,1.0113789E0,4.4915065E-1,0E0,3.50035E-1,0E0,0E0,3.5737115E-1,0E0,0E0,0E0,0E0],"parents":[2147483647,0,0,1,1,2,2,3,3,5,5,8,8],"right_children":[2,4,6,8,-1,10,-1,-1,12,-1,-1,-1,-1],"split_conditions":[5.571558E-1,6.52E2,6.689478E-1,6.329819E-1,-2.018947E-2,5.66857E-1,1.814908E-2,1.2262472E-2,4.28E2,4.5116013E-3,-1.2305158E-2,-1.108292E-2,4.5744325E-3],"split_indices":[4,5,3,3,0,3,0,0,5,0,0,0,0],"split_type":[0,0,0,0,0,0,0,0,0,0,0,0,0],"sum_hessian":[4.2207115E1,2.3273537E1,1.8933578E1,1.7814585E1,5.458953E0,1.0043562E1,8.890017E0,5.5632787E0,1.2251306E1,5.0412602E0,5.002301E0,6.5627055E0,5.6886E0],"tree_param":{"num_deleted":"0","num_feature":"12","num_nodes":"13","size_leaf_vector":"1"}},{"base_weights":[-9.056023E-3,-2.5594127E-1,2.308144E-1,-3.7478924E-1,2.3048983E-3,-5.0241145E-4,3.1135017E-1,-3.5306446E-3,-2.8486138E-2,5.555717E-3,1.9991595E-2],"categories":[],"categories_nodes":[],"categories_segments":[],"categories_sizes":[],"default_left":[0,0,0,0,0,0,0,0,0,0,0],"id":45,"left_children":[1,3,5,7,-1,-1,9,-1,-1,-1,-1],"loss_changes":[2.6117215E0,8.362917E-1,4.6314883E-1,8.4819365E-1,0E0,0E0,2.0479727E-1,0E0,0E0,0E0,0E0],"parents":[2147483647,0,0,1,1,2,2,3,3,6,6],"right_children":[2,4,6,8,-1,-1,10,-1,-1,-1,-1],"split_conditions":[1.698697E-1,6.085235E-1,2.88786E-1,4.9764094E-1,2.3048983E-3,-5.0241145E-4,6.540384E-1,-3.5306446E-3,-2.8486138E-2,5.555717E-3,1.9991595E-2],"split_indices":[8,4,6,4,0,0,3,0,0,0,0],"split_type":[0,0,0,0,0,0,0,0,0,0,0],"sum_hessian":[4.206169E1,2.0900187E1,2.1161505E1,1.5063244E1,5.836943E0,5.2108088E0,1.5950695E1,6.615533E0,8.447711E0,5.9260015E0,1.00246935E1],"tree_param":{"num_deleted":"0","num_feature":"12","num_nodes":"11","size_leaf_vector":"1"}},{"base_weights":[-2.167986E-2,-3.1267947E-1,1.2805071E-1,-2.4411576E-2,-7.354726E-3,-4.8679393E-3,2.3966177E-1,3.1552833E-1,2.815157E-3,5.701771E-3,2.1782326E-2],"categories":[],"categories_nodes":[],"categories_segments":[],"categories_sizes":[],"default_left":[0,0,0,0,0,0,0,0,0,0,0],"id":46,"left_children":[1,3,5,-1,-1,-1,7,9,-1,-1,-1],"loss_changes":[2.0436113E0,3.2962382E-1,8.06503E-1,0E0,0E0,0E0,2.3756564E-1,2.4074674E-1,0E0,0E0,0E0],"parents":[2147483647,0,0,1,1,2,2,6,6,7,7],"right_children":[2,4,6,-1,-1,-1,8,10,-1,-1,-1],"split_conditions":[8.768622E-2,2.7483505E-1,3.794323E-1,-2.4411576E-2,-7.354726E-3,-4.8679393E-3,2.047912E1,1.2E2,2.815157E-3,5.701771E-3,2.1782326E-2],"split_indices":[8,6,6,0,0,0,10,7,0,0,0],"split_type":[0,0,0,0,0,0,0,0,0,0,0],"sum_hessian":[4.455978E1,1.4995598E1,2.9564182E1,6.0397987E0,8.955799E0,9.536338E0,2.0027845E1,1.3270732E1,6.7571125E0,5.99547E0,7.2752624E0],"tree_param":{"num_deleted":"0","num_feature":"12","num_nodes":"11","size_leaf_vector":"1"}},{"base_weights":[6.6132315E-2,-5.2155994E-2,3.941211E-1,-2.2279823E-1,6.1499376E-2,2.4988266E-2,9.367146E-3,-0E0,-1.7699102E-2,1.835653E-1,-7.6582283E-3,1.7486399E-2,-3.4755946E-3],"categories":[],"categories_nodes":[],"categories_segments":[],"categories_sizes":[],"default_left":[0,0,0,0,0,0,0,0,0,0,0,0,0],"id":47,"left_children":[1,3,5,7,9,-1,-1,-1,-1,11,-1,-1,-1],"loss_changes":[1.7986543E0,6.8331E-1,1.0537052E-1,4.2702532E-1,5.724074E-1,0E0,0E0,0E0,0E0,6.3769275E-1,0E0,0E0,0E0],"parents":[2147483647,0,0,1,1,2,2,3,3,4,4,9,9],"right_children":[2,4,6,8,10,-1,-1,-1,-1,12,-1,-1,-1],"split_conditions":[2.668666E-1,9.965014E-2,7.149247E-1,1.13E2,5.8012223E-1,2.4988266E-2,9.367146E-3,-0E0,-1.7699102E-2,7.009207E-1,-7.6582283E-3,1.7486399E-2,-3.4755946E-3],"split_indices":[8,8,3,7,4,0,0,0,0,3,0,0,0],"split_type":[0,0,0,0,0,0,0,0,0,0,0,0,0],"sum_hessian":[4.3949123E1,3.2694157E1,1.1254969E1,1.3038181E1,1.9655975E1,6.1912813E0,5.0636873E0,5.0690045E0,7.9691763E0,1.2919934E1,6.736041E0,7.8072004E0,5.112734E0],"tree_param":{"num_deleted":"0","num_feature":"12","num_nodes":"13","size_leaf_vector":"1"}}]},"name":"gbtree"},"learner_model_param":{"base_score":"[-4.883694E-9]","boost_from_average":"1","num_class":"0","num_feature":"12","num_target":"1"},"objective":{"lambdarank_param":{"lambdarank_bias_norm":"1","lambdarank_normalization":"1","lambdarank_num_pair_per_sample":"4294967295","lambdarank_pair_method":"topk","lambdarank_score_normalization":"1","lambdarank_unbiased":"0","ndcg_exp_gain":"1"},"name":"rank:pairwise"}},"version":[3,2,0]}